Language model created by QuickLM on Sun Aug 11 12:12:32 EDT 2019
Copyright (c) 1996-2010 Carnegie Mellon University and Alexander I. Rudnicky

The model is in standard ARPA format, designed by Doug Paul while he was at MITRE.

The code that was used to produce this language model is available in Open Source.
Please visit http://www.speech.cs.cmu.edu/tools/ for more information

The (fixed) discount mass is 0.5. The backoffs are computed using the ratio method.
This model based on a corpus of 50 sentences and 56 words

\data\
ngram 1=56
ngram 2=104
ngram 3=81

\1-grams:
-0.8597 </s> -0.3010
-0.8597 <s> -0.2323
-2.2577 ALARM -0.2365
-2.5587 AWAKEN -0.2365
-2.5587 BUZZ -0.2986
-2.5587 CALIBRATE -0.2365
-2.5587 CANCEL -0.2986
-2.5587 DATE -0.2365
-2.2577 DOWN -0.2365
-2.5587 EIGHT -0.2365
-2.5587 EIGHTEEN -0.2365
-2.5587 ELEVEN -0.2365
-2.5587 FIFTEEN -0.2365
-2.5587 FIVE -0.2365
-2.5587 FOUR -0.2365
-2.5587 FOURTEEN -0.2365
-2.5587 GOOD -0.2998
-2.5587 GOODNIGHT -0.2365
-2.5587 HALF -0.2986
-2.2577 HOUR -0.2365
-2.5587 HULU -0.2365
-2.5587 INTRODUCTION -0.2365
-2.5587 LEFT -0.2365
-1.3034 LIGHT -0.2789
-2.5587 MORNING -0.2365
-2.5587 MUSIC -0.2365
-2.5587 MUTE -0.2365
-2.5587 NETFLIX -0.2365
-2.5587 NINE -0.2365
-2.2577 OFF -0.2365
-2.5587 ON -0.2365
-2.5587 ONE -0.2365
-2.0816 OPEN -0.2974
-2.5587 PAUSE -0.2365
-2.2577 PLAY -0.2351
-2.5587 RESTART -0.2365
-2.5587 RIGHT -0.2365
-2.5587 SET -0.2986
-2.5587 SEVEN -0.2365
-2.5587 SEVENTEEN -0.2365
-2.5587 SIX -0.2365
-2.5587 SIXTEEN -0.2365
-2.5587 SLEEP -0.2365
-2.5587 STOP -0.2365
-2.5587 TEN -0.2365
-2.5587 THIRTEEN -0.2365
-2.5587 THREE -0.2365
-2.5587 TIME -0.2365
-2.5587 TWELVE -0.2365
-2.5587 TWO -0.2365
-2.2577 T_V -0.2974
-2.5587 UNDO -0.2365
-2.5587 UNMUTE -0.2365
-2.2577 UP -0.2365
-2.2577 VOLUME -0.2962
-2.5587 YOUTUBE -0.2365

\2-grams:
-2.0000 <s> AWAKEN 0.0000
-2.0000 <s> BUZZ 0.0000
-2.0000 <s> CALIBRATE 0.0000
-2.0000 <s> CANCEL 0.0000
-2.0000 <s> DATE 0.0000
-2.0000 <s> DOWN 0.0000
-2.0000 <s> GOOD 0.0000
-2.0000 <s> GOODNIGHT 0.0000
-2.0000 <s> HALF 0.0000
-2.0000 <s> HOUR 0.0000
-2.0000 <s> INTRODUCTION 0.0000
-2.0000 <s> LEFT 0.0000
-0.7447 <s> LIGHT 0.0000
-2.0000 <s> MUTE 0.0000
-1.5229 <s> OPEN 0.0000
-2.0000 <s> PAUSE 0.0000
-1.6990 <s> PLAY 0.0000
-2.0000 <s> RESTART 0.0000
-2.0000 <s> RIGHT 0.0000
-2.0000 <s> SET 0.0000
-2.0000 <s> SLEEP 0.0000
-2.0000 <s> STOP 0.0000
-2.0000 <s> TIME 0.0000
-1.6990 <s> T_V 0.0000
-2.0000 <s> UNDO 0.0000
-2.0000 <s> UNMUTE 0.0000
-2.0000 <s> UP 0.0000
-1.6990 <s> VOLUME 0.0000
-0.3010 ALARM </s> -0.3010
-0.3010 AWAKEN </s> -0.3010
-0.3010 BUZZ OFF 0.0000
-0.3010 CALIBRATE </s> -0.3010
-0.3010 CANCEL ALARM 0.0000
-0.3010 DATE </s> -0.3010
-0.3010 DOWN </s> -0.3010
-0.3010 EIGHT </s> -0.3010
-0.3010 EIGHTEEN </s> -0.3010
-0.3010 ELEVEN </s> -0.3010
-0.3010 FIFTEEN </s> -0.3010
-0.3010 FIVE </s> -0.3010
-0.3010 FOUR </s> -0.3010
-0.3010 FOURTEEN </s> -0.3010
-0.3010 GOOD MORNING 0.0000
-0.3010 GOODNIGHT </s> -0.3010
-0.3010 HALF HOUR 0.0000
-0.3010 HOUR </s> -0.3010
-0.3010 HULU </s> -0.3010
-0.3010 INTRODUCTION </s> -0.3010
-0.3010 LEFT </s> -0.3010
-1.5563 LIGHT EIGHT 0.0000
-1.5563 LIGHT EIGHTEEN 0.0000
-1.5563 LIGHT ELEVEN 0.0000
-1.5563 LIGHT FIFTEEN 0.0000
-1.5563 LIGHT FIVE 0.0000
-1.5563 LIGHT FOUR 0.0000
-1.5563 LIGHT FOURTEEN 0.0000
-1.5563 LIGHT NINE 0.0000
-1.5563 LIGHT ONE 0.0000
-1.5563 LIGHT SEVEN 0.0000
-1.5563 LIGHT SEVENTEEN 0.0000
-1.5563 LIGHT SIX 0.0000
-1.5563 LIGHT SIXTEEN 0.0000
-1.5563 LIGHT TEN 0.0000
-1.5563 LIGHT THIRTEEN 0.0000
-1.5563 LIGHT THREE 0.0000
-1.5563 LIGHT TWELVE 0.0000
-1.5563 LIGHT TWO 0.0000
-0.3010 MORNING </s> -0.3010
-0.3010 MUSIC </s> -0.3010
-0.3010 MUTE </s> -0.3010
-0.3010 NETFLIX </s> -0.3010
-0.3010 NINE </s> -0.3010
-0.3010 OFF </s> -0.3010
-0.3010 ON </s> -0.3010
-0.3010 ONE </s> -0.3010
-0.7782 OPEN HULU 0.0000
-0.7782 OPEN NETFLIX 0.0000
-0.7782 OPEN YOUTUBE 0.0000
-0.3010 PAUSE </s> -0.3010
-0.6021 PLAY </s> -0.3010
-0.6021 PLAY MUSIC 0.0000
-0.3010 RESTART </s> -0.3010
-0.3010 RIGHT </s> -0.3010
-0.3010 SET ALARM 0.0000
-0.3010 SEVEN </s> -0.3010
-0.3010 SEVENTEEN </s> -0.3010
-0.3010 SIX </s> -0.3010
-0.3010 SIXTEEN </s> -0.3010
-0.3010 SLEEP </s> -0.3010
-0.3010 STOP </s> -0.3010
-0.3010 TEN </s> -0.3010
-0.3010 THIRTEEN </s> -0.3010
-0.3010 THREE </s> -0.3010
-0.3010 TIME </s> -0.3010
-0.3010 TWELVE </s> -0.3010
-0.3010 TWO </s> -0.3010
-0.6021 T_V OFF 0.0000
-0.6021 T_V ON 0.0000
-0.3010 UNDO </s> -0.3010
-0.3010 UNMUTE </s> -0.3010
-0.3010 UP </s> -0.3010
-0.6021 VOLUME DOWN 0.0000
-0.6021 VOLUME UP 0.0000
-0.3010 YOUTUBE </s> -0.3010

\3-grams:
-0.3010 <s> AWAKEN </s>
-0.3010 <s> BUZZ OFF
-0.3010 <s> CALIBRATE </s>
-0.3010 <s> CANCEL ALARM
-0.3010 <s> DATE </s>
-0.3010 <s> DOWN </s>
-0.3010 <s> GOOD MORNING
-0.3010 <s> GOODNIGHT </s>
-0.3010 <s> HALF HOUR
-0.3010 <s> HOUR </s>
-0.3010 <s> INTRODUCTION </s>
-0.3010 <s> LEFT </s>
-1.5563 <s> LIGHT EIGHT
-1.5563 <s> LIGHT EIGHTEEN
-1.5563 <s> LIGHT ELEVEN
-1.5563 <s> LIGHT FIFTEEN
-1.5563 <s> LIGHT FIVE
-1.5563 <s> LIGHT FOUR
-1.5563 <s> LIGHT FOURTEEN
-1.5563 <s> LIGHT NINE
-1.5563 <s> LIGHT ONE
-1.5563 <s> LIGHT SEVEN
-1.5563 <s> LIGHT SEVENTEEN
-1.5563 <s> LIGHT SIX
-1.5563 <s> LIGHT SIXTEEN
-1.5563 <s> LIGHT TEN
-1.5563 <s> LIGHT THIRTEEN
-1.5563 <s> LIGHT THREE
-1.5563 <s> LIGHT TWELVE
-1.5563 <s> LIGHT TWO
-0.3010 <s> MUTE </s>
-0.7782 <s> OPEN HULU
-0.7782 <s> OPEN NETFLIX
-0.7782 <s> OPEN YOUTUBE
-0.3010 <s> PAUSE </s>
-0.6021 <s> PLAY </s>
-0.6021 <s> PLAY MUSIC
-0.3010 <s> RESTART </s>
-0.3010 <s> RIGHT </s>
-0.3010 <s> SET ALARM
-0.3010 <s> SLEEP </s>
-0.3010 <s> STOP </s>
-0.3010 <s> TIME </s>
-0.6021 <s> T_V OFF
-0.6021 <s> T_V ON
-0.3010 <s> UNDO </s>
-0.3010 <s> UNMUTE </s>
-0.3010 <s> UP </s>
-0.6021 <s> VOLUME DOWN
-0.6021 <s> VOLUME UP
-0.3010 BUZZ OFF </s>
-0.3010 CANCEL ALARM </s>
-0.3010 GOOD MORNING </s>
-0.3010 HALF HOUR </s>
-0.3010 LIGHT EIGHT </s>
-0.3010 LIGHT EIGHTEEN </s>
-0.3010 LIGHT ELEVEN </s>
-0.3010 LIGHT FIFTEEN </s>
-0.3010 LIGHT FIVE </s>
-0.3010 LIGHT FOUR </s>
-0.3010 LIGHT FOURTEEN </s>
-0.3010 LIGHT NINE </s>
-0.3010 LIGHT ONE </s>
-0.3010 LIGHT SEVEN </s>
-0.3010 LIGHT SEVENTEEN </s>
-0.3010 LIGHT SIX </s>
-0.3010 LIGHT SIXTEEN </s>
-0.3010 LIGHT TEN </s>
-0.3010 LIGHT THIRTEEN </s>
-0.3010 LIGHT THREE </s>
-0.3010 LIGHT TWELVE </s>
-0.3010 LIGHT TWO </s>
-0.3010 OPEN HULU </s>
-0.3010 OPEN NETFLIX </s>
-0.3010 OPEN YOUTUBE </s>
-0.3010 PLAY MUSIC </s>
-0.3010 SET ALARM </s>
-0.3010 T_V OFF </s>
-0.3010 T_V ON </s>
-0.3010 VOLUME DOWN </s>
-0.3010 VOLUME UP </s>

\end\
