Language model created by QuickLM on Tue Apr 17 11:39:26 EDT 2018
Copyright (c) 1996-2010 Carnegie Mellon University and Alexander I. Rudnicky

The model is in standard ARPA format, designed by Doug Paul while he was at MITRE.

The code that was used to produce this language model is available in Open Source.
Please visit http://www.speech.cs.cmu.edu/tools/ for more information

The (fixed) discount mass is 0.5. The backoffs are computed using the ratio method.
This model based on a corpus of 43 sentences and 50 words

\data\
ngram 1=50
ngram 2=91
ngram 3=70

\1-grams:
-0.8662 </s> -0.3010
-0.8662 <s> -0.2359
-2.4997 ADDONS -0.2375
-2.1987 ALARM -0.2375
-2.4997 ASSISTANT -0.2375
-2.4997 AWAKEN -0.2375
-2.4997 BACK -0.2375
-2.4997 CALIBRATE -0.2375
-2.4997 CANCEL -0.2983
-2.4997 DOWN -0.2375
-2.4997 EIGHT -0.2375
-2.4997 EIGHTEEN -0.2375
-2.4997 ELEVEN -0.2375
-2.4997 FIFTEEN -0.2375
-2.4997 FIVE -0.2375
-2.4997 FOUR -0.2375
-2.4997 FOURTEEN -0.2375
-1.8976 GO -0.2955
-2.4997 GOOD -0.2997
-2.4997 GOODNIGHT -0.2375
-2.4997 HALF -0.2983
-2.4997 HOME -0.2375
-2.1987 HOUR -0.2375
-2.4997 LEFT -0.2375
-1.2444 LIGHT -0.2756
-2.4997 MORNING -0.2375
-2.4997 MUTE -0.2375
-2.4997 NINE -0.2375
-2.4997 ONE -0.2375
-2.4997 PAUSE -0.2375
-2.4997 PLAY -0.2375
-2.4997 RESTART -0.2375
-2.4997 RIGHT -0.2375
-2.4997 SELECT -0.2375
-2.4997 SET -0.2983
-2.4997 SETTINGS -0.2375
-2.4997 SEVEN -0.2375
-2.4997 SEVENTEEN -0.2375
-2.4997 SIX -0.2375
-2.4997 SIXTEEN -0.2375
-2.4997 SLEEP -0.2375
-2.4997 STOP -0.2375
-2.4997 TEN -0.2375
-2.4997 THIRTEEN -0.2375
-2.4997 THREE -0.2375
-2.0226 TO -0.2969
-2.4997 TWELVE -0.2375
-2.4997 TWO -0.2375
-2.4997 UNMUTE -0.2375
-2.4997 UP -0.2375

\2-grams:
-1.9345 <s> ASSISTANT 0.0000
-1.9345 <s> AWAKEN 0.0000
-1.9345 <s> CALIBRATE 0.0000
-1.9345 <s> CANCEL 0.0000
-1.9345 <s> DOWN 0.0000
-1.3324 <s> GO 0.0000
-1.9345 <s> GOOD 0.0000
-1.9345 <s> GOODNIGHT 0.0000
-1.9345 <s> HALF 0.0000
-1.9345 <s> HOUR 0.0000
-1.9345 <s> LEFT 0.0000
-0.6792 <s> LIGHT 0.0000
-1.9345 <s> MUTE 0.0000
-1.9345 <s> PAUSE 0.0000
-1.9345 <s> PLAY 0.0000
-1.9345 <s> RESTART 0.0000
-1.9345 <s> RIGHT 0.0000
-1.9345 <s> SELECT 0.0000
-1.9345 <s> SET 0.0000
-1.9345 <s> SLEEP 0.0000
-1.9345 <s> STOP 0.0000
-1.9345 <s> UNMUTE 0.0000
-1.9345 <s> UP 0.0000
-0.3010 ADDONS </s> -0.3010
-0.3010 ALARM </s> -0.3010
-0.3010 ASSISTANT </s> -0.3010
-0.3010 AWAKEN </s> -0.3010
-0.3010 BACK </s> -0.3010
-0.3010 CALIBRATE </s> -0.3010
-0.3010 CANCEL ALARM 0.0000
-0.3010 DOWN </s> -0.3010
-0.3010 EIGHT </s> -0.3010
-0.3010 EIGHTEEN </s> -0.3010
-0.3010 ELEVEN </s> -0.3010
-0.3010 FIFTEEN </s> -0.3010
-0.3010 FIVE </s> -0.3010
-0.3010 FOUR </s> -0.3010
-0.3010 FOURTEEN </s> -0.3010
-0.9031 GO BACK 0.0000
-0.4260 GO TO 0.0000
-0.3010 GOOD MORNING 0.0000
-0.3010 GOODNIGHT </s> -0.3010
-0.3010 HALF HOUR 0.0000
-0.3010 HOME </s> -0.3010
-0.3010 HOUR </s> -0.3010
-0.3010 LEFT </s> -0.3010
-1.5563 LIGHT EIGHT 0.0000
-1.5563 LIGHT EIGHTEEN 0.0000
-1.5563 LIGHT ELEVEN 0.0000
-1.5563 LIGHT FIFTEEN 0.0000
-1.5563 LIGHT FIVE 0.0000
-1.5563 LIGHT FOUR 0.0000
-1.5563 LIGHT FOURTEEN 0.0000
-1.5563 LIGHT NINE 0.0000
-1.5563 LIGHT ONE 0.0000
-1.5563 LIGHT SEVEN 0.0000
-1.5563 LIGHT SEVENTEEN 0.0000
-1.5563 LIGHT SIX 0.0000
-1.5563 LIGHT SIXTEEN 0.0000
-1.5563 LIGHT TEN 0.0000
-1.5563 LIGHT THIRTEEN 0.0000
-1.5563 LIGHT THREE 0.0000
-1.5563 LIGHT TWELVE 0.0000
-1.5563 LIGHT TWO 0.0000
-0.3010 MORNING </s> -0.3010
-0.3010 MUTE </s> -0.3010
-0.3010 NINE </s> -0.3010
-0.3010 ONE </s> -0.3010
-0.3010 PAUSE </s> -0.3010
-0.3010 PLAY </s> -0.3010
-0.3010 RESTART </s> -0.3010
-0.3010 RIGHT </s> -0.3010
-0.3010 SELECT </s> -0.3010
-0.3010 SET ALARM 0.0000
-0.3010 SETTINGS </s> -0.3010
-0.3010 SEVEN </s> -0.3010
-0.3010 SEVENTEEN </s> -0.3010
-0.3010 SIX </s> -0.3010
-0.3010 SIXTEEN </s> -0.3010
-0.3010 SLEEP </s> -0.3010
-0.3010 STOP </s> -0.3010
-0.3010 TEN </s> -0.3010
-0.3010 THIRTEEN </s> -0.3010
-0.3010 THREE </s> -0.3010
-0.7782 TO ADDONS 0.0000
-0.7782 TO HOME 0.0000
-0.7782 TO SETTINGS 0.0000
-0.3010 TWELVE </s> -0.3010
-0.3010 TWO </s> -0.3010
-0.3010 UNMUTE </s> -0.3010
-0.3010 UP </s> -0.3010

\3-grams:
-0.3010 <s> ASSISTANT </s>
-0.3010 <s> AWAKEN </s>
-0.3010 <s> CALIBRATE </s>
-0.3010 <s> CANCEL ALARM
-0.3010 <s> DOWN </s>
-0.9031 <s> GO BACK
-0.4260 <s> GO TO
-0.3010 <s> GOOD MORNING
-0.3010 <s> GOODNIGHT </s>
-0.3010 <s> HALF HOUR
-0.3010 <s> HOUR </s>
-0.3010 <s> LEFT </s>
-1.5563 <s> LIGHT EIGHT
-1.5563 <s> LIGHT EIGHTEEN
-1.5563 <s> LIGHT ELEVEN
-1.5563 <s> LIGHT FIFTEEN
-1.5563 <s> LIGHT FIVE
-1.5563 <s> LIGHT FOUR
-1.5563 <s> LIGHT FOURTEEN
-1.5563 <s> LIGHT NINE
-1.5563 <s> LIGHT ONE
-1.5563 <s> LIGHT SEVEN
-1.5563 <s> LIGHT SEVENTEEN
-1.5563 <s> LIGHT SIX
-1.5563 <s> LIGHT SIXTEEN
-1.5563 <s> LIGHT TEN
-1.5563 <s> LIGHT THIRTEEN
-1.5563 <s> LIGHT THREE
-1.5563 <s> LIGHT TWELVE
-1.5563 <s> LIGHT TWO
-0.3010 <s> MUTE </s>
-0.3010 <s> PAUSE </s>
-0.3010 <s> PLAY </s>
-0.3010 <s> RESTART </s>
-0.3010 <s> RIGHT </s>
-0.3010 <s> SELECT </s>
-0.3010 <s> SET ALARM
-0.3010 <s> SLEEP </s>
-0.3010 <s> STOP </s>
-0.3010 <s> UNMUTE </s>
-0.3010 <s> UP </s>
-0.3010 CANCEL ALARM </s>
-0.3010 GO BACK </s>
-0.7782 GO TO ADDONS
-0.7782 GO TO HOME
-0.7782 GO TO SETTINGS
-0.3010 GOOD MORNING </s>
-0.3010 HALF HOUR </s>
-0.3010 LIGHT EIGHT </s>
-0.3010 LIGHT EIGHTEEN </s>
-0.3010 LIGHT ELEVEN </s>
-0.3010 LIGHT FIFTEEN </s>
-0.3010 LIGHT FIVE </s>
-0.3010 LIGHT FOUR </s>
-0.3010 LIGHT FOURTEEN </s>
-0.3010 LIGHT NINE </s>
-0.3010 LIGHT ONE </s>
-0.3010 LIGHT SEVEN </s>
-0.3010 LIGHT SEVENTEEN </s>
-0.3010 LIGHT SIX </s>
-0.3010 LIGHT SIXTEEN </s>
-0.3010 LIGHT TEN </s>
-0.3010 LIGHT THIRTEEN </s>
-0.3010 LIGHT THREE </s>
-0.3010 LIGHT TWELVE </s>
-0.3010 LIGHT TWO </s>
-0.3010 SET ALARM </s>
-0.3010 TO ADDONS </s>
-0.3010 TO HOME </s>
-0.3010 TO SETTINGS </s>

\end\
